-2139
1812
-2563
471
-1756
-277
574
-872
-772
184
1091
1425
1967
1657
-2509
-529
959
-1547
640
1256
-1006
-1239
932
1086
-571
1001
324
-141
-3199
-3591
-1050
-299
-4880
-783
-501
-955
-1089
-779
-1666
1906
-2780
-3925
-1531
-1633
-1276
515
-565
1639
-1543
-705
-158
-1483
-1636
-3217
741
-3221
-1435
257
-2886
1338
-2442
930
-961
-415
1505
1410
3262
2824
2766
-167
-412
-850
-978
668
2290
-391
-3271
1521
319
2573
-1172
-2749
-2903
-407
1109
259
189
-3294
-370
2055
-1377
-1697
-192
-878
98
-3245
-2608
-1347
1442
-1718
-999
949
-2038
-659
-1507
-1275
-2878
343
-1503
-1022
1278
865
-814
-258
255
751
-4456
-1212
2066
-1123
3494
1552
-2293
1705
624
-326
416
-1243
466
-1020
-1573
-25
-2447
916
-1096
642
-2818
771
992
-1258
16
1379
-1310
-44
-1139
602
105
442
762
1085
-1077
2877
-361
1710
-988
-2483
2798
-4710
-1314
-4514
932
1346
102
359
-1276
516
2040
823
252
169
-1460
-84
555
-801
1368
-647
-842
3
2985
818
-5877
1361
701
-1294
1151
-1548
-144
-2123
-809
-29
-1361
-1150
-1187
-1611
165
1522
96
-1374
586
-2044
-1844
-432
-1004
-2217
-605
-274
811
-4337
-2695
1509
-631
2000
-1765
-4815
-2896
-624
-1323
-2149
-2506
2040
-1391
-449
-1302
1798
215
-1869
215
-763
-755
-1168
959
1739
-1240
895
-310
-306
1519
-4325
940
283
-452
-1534
-1040
1263
120
-3699
2875
2040
-1701
-63
1830
-1367
-1521
-1406
-770
-1220
3245
-581
1406
-646
316
523
691
-1266
-1337
1659
353
-1275
-580
-1553
-1174
-1382
1964
1621
-106
857
-2408
-481
-173
-2108
674
-593
894
1754
-238
-168
344
2554
-2631
2293
-1088
496
-1000
2942
-701
-598
2158
1135
495
2775
-200
1734
-624
-378
-3043
-1730
-116
1757
-1633
-1243
1132
-645
1736
-1229
668
-4357
-1456
269
-1154
1866
250
1350
-660
-1495
-3212
-322
-1160
2346
-386
-1512
-2760
-1919
-1789
-362
358
-1256
-962
985
-1571
551
-203
-1553
389
764
1121
285
437
-1496
86
-3928
-1080
183
1344
-1540
-1282
-1701
1161
1180
1652
-1638
-1600
-4206
1531
1784
-278
4491
-1522
-1334
-813
-1344
1011
827
3628
1873
-1360
-589
23
1271
1028
-902
-661
1373
-3231
907
1908
-310
-1562
-293
3780
2395
68
-3275
59
352
1200
-846
-3063
64
-3660
-2662
1242
-2765
1730
-2495
147
-1181
-1815
-675
352
-828
579
-1624
1634
-448
-1813
-977
2815
-2495
-1663
1095
336
-1641
-1742
76
-531
1561
-1701
2322
2841
-2559
-2304
-2029
1016
-922
-1355
3124
-1069
253
171
3414
803
1682
1445
-2218
-1412
-1564
249
1273
-716
-1334
-479
-1030
-127
-699
-1921
-4351
1758
44
-1426
-1167
447
1116
-745
174
-1495
-1043
-1690
413
2076
466
-1314
1237
-1253
1097
-1576
1316
4359
919
1228
44
-995
4302
-1967
-1262
-796
2332
-671
-4491
-3723
-1810
-2487
-702
-3238
-2132
-1689
-909
-1955
1991
1552
-105
-738
2339
2889
439
-536
1618
-1772
-4338
-4157
-3045
21
1664
