8749
147
-8873
9837
-4873
-1026
-399
10226
-28451
3049
-11485
-4647
-4879
2860
-4329
-14088
3923
-16188
7472
-34
2405
4832
1562
-2
-1283
4235
331
2975
5429
2223
3140
3282
-21403
4060
-867
4346
-4065
-2651
-2982
1878
3375
6089
9460
2443
-10702
803
1955
5277
4259
-61
4371
10213
8085
5107
-2273
-4215
-6883
3272
993
-12488
483
-1511
-19539
1723
11254
-4988
-825
2552
-3749
4538
3268
-676
2237
186
9783
-17067
-717
-9588
-3988
889
701
-20454
3773
5172
6649
960
5999
3158
-626
11809
1485
2300
664
29
1499
1717
11629
2375
5526
-921
1798
2579
4449
4521
3457
4064
352
2949
4018
-364
5419
-674
127
338
-17829
6252
1577
11502
-1547
1154
3018
1937
5105
2404
1409
-19965
5772
-4376
3410
-4541
2715
-11690
3385
-967
14644
2359
3800
-14788
5296
5247
2517
1198
-134
-12908
-2193
6121
-10479
7049
755
-337
1603
-936
-11952
1605
-1322
3600
6496
1046
6420
-2688
2006
4781
8449
1771
12045
4733
1420
6683
1779
2435
-8323
1936
9378
6425
3124
3506
3333
2286
4685
6192
-735
-4007
-1907
-6345
-779
-19681
1565
1681
1099
-14616
3732
3348
-6890
-5614
-144
-10037
1958
4609
2051
1278
-10549
-981
4948
10481
-3302
2566
154
1186
-5728
-14933
-7538
3002
3743
573
-14334
8602
397
3942
-12041
15571
489
5043
5739
1762
-667
1003
5644
1244
698
-817
-887
4757
603
6076
-11437
-2891
7531
1566
-4119
-3602
1730
-16171
-15289
-8207
1011
2461
4696
-645
-6416
1613
-8819
8411
4574
2788
-6711
-24700
