-128
95
-245
-212
402
174
-11
-33
421
-58
-214
-91
-462
285
-46
-283
-214
-214
52
-174
-54
99
-415
-215
-626
-336
341
93
-213
-214
-72
23
-51
-68
-142
-210
-73
-223
-32
-213
-138
146
-212
-115
365
-78
-217
-77
-250
-397
-199
-149
-257
-202
-200
-575
-88
25
-64
-213
-127
-178
-208
-164
-214
27
-231
-27
-135
78
-173
-270
17
564
44
-31
120
-35
-387
-26
277
-194
-98
95
-25
9
-214
-156
-208
-189
-217
-32
-247
-229
-142
-123
-12
-219
-215
-224
-213
160
-429
-55
119
-213
-105
-92
-198
-21
-180
158
-144
-134
-215
229
-60
-51
-281
131
-80
-99
-21
373
88
-5
-60
-107
-213
-23
-21
-184
-211
-217
-220
-136
39
-213
-24
-207
-202
-262
54
-68
-161
72
97
401
419
-112
-214
-181
221
-69
-130
-89
-216
-28
-50
-108
-137
512
-110
-222
-87
-244
-250
-240
-136
-192
-215
-88
-54
-154
23
-205
-62
-196
26
45
-278
-161
-176
-206
-450
-146
-265
-131
-208
-55
368
-95
-5
-213
-128
-196
-270
-177
-201
-17
-115
-253
-65
-127
-76
-220
-26
-165
-3
284
-80
-142
49
-71
-40
-10
-41
-214
347
98
-24
-75
-210
-206
-238
-61
-651
-106
-78
124
-140
-152
-75
-67
-138
-122
473
-212
-189
-136
-212
-183
-105
-110
760
84
-193
-5
-213
-139
-372
-117
-322
167
-13
-85
-185
31
-73
-148
-13
-18
-175
59
109
-133
-365
-162
-213
-212
-193
-253
-77
-213
-107
-99
108
0
-143
143
306
-83
-91
-212
-171
-201
-311
-90
-217
-140
13
-141
-290
-152
-212
-180
226
-96
-234
-236
-52
-15
-211
-359
39
11
-107
-11
-144
-214
-29
102
-118
-508
-78
-310
437
182
-170
-218
-92
-101
97
-143
-192
-211
53
-43
32
-328
-212
-125
80
188
-201
-214
-76
-152
-281
40
-283
39
31
-96
-198
-11
-212
-558
70
-53
-166
-237
166
-213
211
-240
-332
-707
-218
-208
180
-57
77
-178
17
-206
-215
-54
-55
53
-209
362
-262
-162
367
-106
-210
-556
-176
-42
-586
-169
-144
301
-43
-338
69
-159
-213
34
-160
-196
-33
16
-280
-167
-215
-76
-212
-130
105
-65
-57
-602
-188
-35
95
-211
-212
-133
-211
-109
-26
-200
-242
-212
-105
-58
-167
418
-107
-95
-236
152
-207
-67
57
-61
-86
-122
-267
-461
-145
-43
-17
-104
-143
18
210
-136
-564
-97
-213
-279
-72
29
142
111
-270
-211
-103
-115
-184
138
-95
-255
-53
66
40
0
-162
-101
-214
-115
-216
-233
-322
-238
-71
-167
-180
-403
-107
-487
-214
-203
-197
-685
-215
-213
26
-336
-133
-210
-123
213
-164
-94
-148
-45
90
-121
-33
-139
-213
-47
-236
-151
-266
-84
-74
-246
-273
-215
430
-66
-73
-552
52
-39
-162
184
